digraph Tree {
node [shape=box] ;
0 [label="Years <= 4.5\nmse = 202734.2692\nsamples = 263\nvalue = 535.9259"] ;
1 [label="Hits <= 2.5\nmse = 75213.0152\nsamples = 90\nvalue = 225.8315"] ;
0 -> 1 [labeldistance=2.5, labelangle=45, headlabel="True"] ;
2 [label="mse = 0.0\nsamples = 1\nvalue = 2127.333"] ;
1 -> 2 ;
3 [label="mse = 34975.7011\nsamples = 89\nvalue = 204.4663"] ;
1 -> 3 ;
4 [label="Hits <= 117.5\nmse = 193025.7353\nsamples = 173\nvalue = 697.2467"] ;
0 -> 4 [labeldistance=2.5, labelangle=-45, headlabel="False"] ;
5 [label="mse = 59023.561\nsamples = 90\nvalue = 464.9167"] ;
4 -> 5 ;
6 [label="mse = 216334.0299\nsamples = 83\nvalue = 949.1708"] ;
4 -> 6 ;
}